<?xml version="1.0"?>
<opencv_storage>
<cascade>
  <stageType>BOOST</stageType>
  <featureType>HAAR</featureType>
  <height>24</height>
  <width>24</width>
  <stageParams>
    <boostType>GAB</boostType>
    <minHitRate>9.9500000476837158e-01</minHitRate>
    <maxFalseAlarm>5.0000000000000000e-01</maxFalseAlarm>
    <weightTrimRate>9.4999998807907104e-01</weightTrimRate>
    <maxDepth>1</maxDepth>
    <maxWeakCount>100</maxWeakCount></stageParams>
  <featureParams>
    <maxCatCount>0</maxCatCount>
    <featSize>1</featSize>
    <mode>BASIC</mode></featureParams>
  <stageNum>9</stageNum>
  <stages>
    <!-- stage 0 -->
    <_>
      <maxWeakCount>1</maxWeakCount>
      <stageThreshold>1.</stageThreshold>
      <weakClassifiers>
        <_>
          <internalNodes>
            0 -1 1 7.8809812664985657e-02</internalNodes>
          <leafValues>
            -1. 1.</leafValues></_></weakClassifiers></_>
    <!-- stage 1 -->
    <_>
      <maxWeakCount>1</maxWeakCount>
      <stageThreshold>9.6774190664291382e-01</stageThreshold>
      <weakClassifiers>
        <_>
          <internalNodes>
            0 -1 11 4.8001660034060478e-03</internalNodes>
          <leafValues>
            -1. 9.6774190664291382e-01</leafValues></_></weakClassifiers></_>
    <!-- stage 2 -->
    <_>
      <maxWeakCount>2</maxWeakCount>
      <stageThreshold>-3.5539411008358002e-02</stageThreshold>
      <weakClassifiers>
        <_>
          <internalNodes>
            0 -1 9 1.1714454012690112e-04</internalNodes>
          <leafValues>
            -9.5744681358337402e-01 8.9019608497619629e-01</leafValues></_>
        <_>
          <internalNodes>
            0 -1 3 1.7476657032966614e-01</internalNodes>
          <leafValues>
            -8.0392426252365112e-01 9.2190742492675781e-01</leafValues></_></weakClassifiers></_>
    <!-- stage 3 -->
    <_>
      <maxWeakCount>3</maxWeakCount>
      <stageThreshold>-6.2328356504440308e-01</stageThreshold>
      <weakClassifiers>
        <_>
          <internalNodes>
            0 -1 10 9.9697187542915344e-03</internalNodes>
          <leafValues>
            8.1954884529113770e-01 -9.6923077106475830e-01</leafValues></_>
        <_>
          <internalNodes>
            0 -1 14 5.0499314966145903e-05</internalNodes>
          <leafValues>
            -6.3063085079193115e-01 1.</leafValues></_>
        <_>
          <internalNodes>
            0 -1 8 4.6862345188856125e-03</internalNodes>
          <leafValues>
            9.7657805681228638e-01 -7.3458957672119141e-01</leafValues></_></weakClassifiers></_>
    <!-- stage 4 -->
    <_>
      <maxWeakCount>2</maxWeakCount>
      <stageThreshold>2.4660747498273849e-02</stageThreshold>
      <weakClassifiers>
        <_>
          <internalNodes>
            0 -1 4 1.3957496732473373e-02</internalNodes>
          <leafValues>
            -8.9115643501281738e-01 8.9558231830596924e-01</leafValues></_>
        <_>
          <internalNodes>
            0 -1 5 -9.1015786165371537e-04</internalNodes>
          <leafValues>
            -7.2448521852493286e-01 9.1581720113754272e-01</leafValues></_></weakClassifiers></_>
    <!-- stage 5 -->
    <_>
      <maxWeakCount>1</maxWeakCount>
      <stageThreshold>8.7692308425903320e-01</stageThreshold>
      <weakClassifiers>
        <_>
          <internalNodes>
            0 -1 2 -1.9397515570744872e-03</internalNodes>
          <leafValues>
            -1. 8.7692308425903320e-01</leafValues></_></weakClassifiers></_>
    <!-- stage 6 -->
    <_>
      <maxWeakCount>2</maxWeakCount>
      <stageThreshold>-1.4432932436466217e-01</stageThreshold>
      <weakClassifiers>
        <_>
          <internalNodes>
            0 -1 13 1.1082839919254184e-03</internalNodes>
          <leafValues>
            8.4732824563980103e-01 -9.7014927864074707e-01</leafValues></_>
        <_>
          <internalNodes>
            0 -1 12 9.2035457491874695e-02</internalNodes>
          <leafValues>
            -9.6111971139907837e-01 8.2581990957260132e-01</leafValues></_></weakClassifiers></_>
    <!-- stage 7 -->
    <_>
      <maxWeakCount>2</maxWeakCount>
      <stageThreshold>1.5740881860256195e-01</stageThreshold>
      <weakClassifiers>
        <_>
          <internalNodes>
            0 -1 6 4.8269382677972317e-03</internalNodes>
          <leafValues>
            -7.3714286088943481e-01 1.</leafValues></_>
        <_>
          <internalNodes>
            0 -1 7 3.0716437322553247e-05</internalNodes>
          <leafValues>
            9.3986696004867554e-01 -8.4259116649627686e-01</leafValues></_></weakClassifiers></_>
    <!-- stage 8 -->
    <_>
      <maxWeakCount>1</maxWeakCount>
      <stageThreshold>1.</stageThreshold>
      <weakClassifiers>
        <_>
          <internalNodes>
            0 -1 0 2.8381575248204172e-04</internalNodes>
          <leafValues>
            1. -1.</leafValues></_></weakClassifiers></_></stages>
  <features>
    <_>
      <rects>
        <_>
          0 0 1 6 -1.</_>
        <_>
          0 2 1 2 3.</_></rects>
      <tilted>0</tilted></_>
    <_>
      <rects>
        <_>
          0 0 19 12 -1.</_>
        <_>
          0 4 19 4 3.</_></rects>
      <tilted>0</tilted></_>
    <_>
      <rects>
        <_>
          0 4 1 18 -1.</_>
        <_>
          0 13 1 9 2.</_></rects>
      <tilted>0</tilted></_>
    <_>
      <rects>
        <_>
          1 0 21 8 -1.</_>
        <_>
          8 0 7 8 3.</_></rects>
      <tilted>0</tilted></_>
    <_>
      <rects>
        <_>
          2 2 6 21 -1.</_>
        <_>
          4 2 2 21 3.</_></rects>
      <tilted>0</tilted></_>
    <_>
      <rects>
        <_>
          2 3 22 2 -1.</_>
        <_>
          2 3 11 1 2.</_>
        <_>
          13 4 11 1 2.</_></rects>
      <tilted>0</tilted></_>
    <_>
      <rects>
        <_>
          3 14 8 6 -1.</_>
        <_>
          3 16 8 2 3.</_></rects>
      <tilted>0</tilted></_>
    <_>
      <rects>
        <_>
          3 18 1 6 -1.</_>
        <_>
          3 20 1 2 3.</_></rects>
      <tilted>0</tilted></_>
    <_>
      <rects>
        <_>
          6 8 12 6 -1.</_>
        <_>
          10 8 4 6 3.</_></rects>
      <tilted>0</tilted></_>
    <_>
      <rects>
        <_>
          8 0 4 3 -1.</_>
        <_>
          10 0 2 3 2.</_></rects>
      <tilted>0</tilted></_>
    <_>
      <rects>
        <_>
          8 1 6 20 -1.</_>
        <_>
          11 1 3 20 2.</_></rects>
      <tilted>0</tilted></_>
    <_>
      <rects>
        <_>
          8 18 16 6 -1.</_>
        <_>
          8 18 8 3 2.</_>
        <_>
          16 21 8 3 2.</_></rects>
      <tilted>0</tilted></_>
    <_>
      <rects>
        <_>
          13 0 11 12 -1.</_>
        <_>
          13 6 11 6 2.</_></rects>
      <tilted>0</tilted></_>
    <_>
      <rects>
        <_>
          16 0 3 24 -1.</_>
        <_>
          17 0 1 24 3.</_></rects>
      <tilted>0</tilted></_>
    <_>
      <rects>
        <_>
          22 18 1 6 -1.</_>
        <_>
          22 21 1 3 2.</_></rects>
      <tilted>0</tilted></_></features></cascade>
</opencv_storage>
