<?xml version="1.0"?>
<opencv_storage>
<cascade>
  <stageType>BOOST</stageType>
  <featureType>HAAR</featureType>
  <height>46</height>
  <width>38</width>
  <stageParams>
    <boostType>GAB</boostType>
    <minHitRate>9.9500000476837158e-01</minHitRate>
    <maxFalseAlarm>5.0000000000000000e-01</maxFalseAlarm>
    <weightTrimRate>9.4999998807907104e-01</weightTrimRate>
    <maxDepth>1</maxDepth>
    <maxWeakCount>100</maxWeakCount></stageParams>
  <featureParams>
    <maxCatCount>0</maxCatCount>
    <featSize>1</featSize>
    <mode>BASIC</mode></featureParams>
  <stageNum>3</stageNum>
  <stages>
    <!-- stage 0 -->
    <_>
      <maxWeakCount>3</maxWeakCount>
      <stageThreshold>-6.4874720573425293e-01</stageThreshold>
      <weakClassifiers>
        <_>
          <internalNodes>
            0 -1 6 -5.1977089606225491e-03</internalNodes>
          <leafValues>
            4.4117647409439087e-01 -7.2972971200942993e-01</leafValues></_>
        <_>
          <internalNodes>
            0 -1 7 2.7633205056190491e-02</internalNodes>
          <leafValues>
            -4.6021422743797302e-01 8.0667936801910400e-01</leafValues></_>
        <_>
          <internalNodes>
            0 -1 2 -1.4264604076743126e-02</internalNodes>
          <leafValues>
            6.0269057750701904e-01 -6.2970942258834839e-01</leafValues></_></weakClassifiers></_>
    <!-- stage 1 -->
    <_>
      <maxWeakCount>2</maxWeakCount>
      <stageThreshold>-1.0099007189273834e-01</stageThreshold>
      <weakClassifiers>
        <_>
          <internalNodes>
            0 -1 0 3.8669634610414505e-02</internalNodes>
          <leafValues>
            -5.8620691299438477e-01 1.</leafValues></_>
        <_>
          <internalNodes>
            0 -1 1 2.9072947800159454e-03</internalNodes>
          <leafValues>
            -8.9953184127807617e-01 4.8521682620048523e-01</leafValues></_></weakClassifiers></_>
    <!-- stage 2 -->
    <_>
      <maxWeakCount>3</maxWeakCount>
      <stageThreshold>-3.1471860408782959e-01</stageThreshold>
      <weakClassifiers>
        <_>
          <internalNodes>
            0 -1 3 8.3539914339780807e-03</internalNodes>
          <leafValues>
            -7.6923078298568726e-01 1.</leafValues></_>
        <_>
          <internalNodes>
            0 -1 4 3.2490188459632918e-05</internalNodes>
          <leafValues>
            -5.4548782110214233e-01 1.</leafValues></_>
        <_>
          <internalNodes>
            0 -1 5 -4.6950805699452758e-04</internalNodes>
          <leafValues>
            1. -5.1077377796173096e-01</leafValues></_></weakClassifiers></_></stages>
  <features>
    <_>
      <rects>
        <_>
          2 0 28 21 -1.</_>
        <_>
          2 7 28 7 3.</_></rects>
      <tilted>0</tilted></_>
    <_>
      <rects>
        <_>
          2 16 16 16 -1.</_>
        <_>
          2 24 16 8 2.</_></rects>
      <tilted>0</tilted></_>
    <_>
      <rects>
        <_>
          5 2 32 26 -1.</_>
        <_>
          21 2 16 26 2.</_></rects>
      <tilted>0</tilted></_>
    <_>
      <rects>
        <_>
          14 0 24 15 -1.</_>
        <_>
          14 5 24 5 3.</_></rects>
      <tilted>0</tilted></_>
    <_>
      <rects>
        <_>
          17 41 3 3 -1.</_>
        <_>
          18 41 1 3 3.</_></rects>
      <tilted>0</tilted></_>
    <_>
      <rects>
        <_>
          19 30 11 3 -1.</_>
        <_>
          19 31 11 1 3.</_></rects>
      <tilted>0</tilted></_>
    <_>
      <rects>
        <_>
          20 18 9 15 -1.</_>
        <_>
          23 18 3 15 3.</_></rects>
      <tilted>0</tilted></_>
    <_>
      <rects>
        <_>
          21 23 15 21 -1.</_>
        <_>
          21 30 15 7 3.</_></rects>
      <tilted>0</tilted></_></features></cascade>
</opencv_storage>
